float W3[1][5] = {0.1916380009634169, 0.7275283164745602, -0.2114293512742758, 1.552362266064853, -2.392527014293206};

float W2[5][20] = {{0.2471874299758338,0.9585444182601948,0.6403325597722656, 0.7357445048751557, 0.3489031510702142, 0.7901276709202277, 0.6823985842904716, 0.3259147588917545, 0.5421587190755467, 0.7197033553480379, 0.3651859646377982, 0.3435300071388613, 0.3966887361921004, 0.998637072854341, 0.5966105845331851, 0.5191640020162467, 0.503615991393135, 0.7915284274881408, 0.2299487263608683, 0.1393046493932289},{0.8155586399448005, -0.03820304194070486, 0.4860005249319641, 0.6525802076979722, 0.2206032523377684, 0.4797772766488259, 0.1048696543095167, 0.3873874469975653, 0.4224869194922043, 0.613603578231827, -0.08431394940913399, 0.4530751618989567, 0.2072724881137006, 0.7851455612034663, 0.7810255633719645, 0.7310770094410478, 1.156310287718997, 0.09144458300063281, 0.2988032242985548, 0.1706919281832193},{0.2821899605753108, 0.6563239307083444, 0.2347433895975181, 0.2361928657467949, 0.1982066593385926, 0.4923541400531988, 0.7882119183107376, 0.4637640056395234, 0.6032857122790095, 0.4134837347235204, 1.000328942791577, 0.1191250571988331, 0.8780572997015663, 0.6800493175372111, 0.2914369144516021, 0.7520655491435899, 0.8094491122220889, 0.5789232896696768, 0.1952520241656423, 0.6842776260311785},{0.3293837156654087, -0.04016649302148202, -0.02843092068819828, 0.1407529287787391, 0.7869184843836153, 1.210816905471903, -0.08239838339887151, -0.002365174984298545, -0.1413801329628309, 0.4077011407302487, 0.07477913648668601, 0.2838507118353608, 0.5896925260183163, 0.2416404666040984, 0.2961049526913461, 0.9578361173636635, 1.243024957720998, 0.361125341502566, 0.943962885930588, 0.7137049136475487},{0.8667939459878784,0.7127222839645972, 1.093835463640241, 1.216698917502496, 0.02914657755145978, 0.4203973625221909, 0.3568211832869632, 0.986436707355472, 1.17448762481745, -0.06704863941497069, 1.350439057615821, 1.165939331376908, 0.476722683224931, 0.5218024722569904, 0.8235012075200631, 0.4756623566323624, -0.3240948074639203, 0.7615873053726707, 0.1140332766019073, -0.0387589712134049}};

float W1[20][2] = {{0.4845352695129477, 0.241150111928823},{0.3249610896971211, 0.3252538376636862}, {0.4569211447320469, 0.4571806172023947}, {0.366422775977865, 0.3732426203535031}, {-0.4223801619125729, 0.9193870452260737}, {0.845529258029376, -0.3128466003457429}, {0.2055066679683748, 0.4919617912455074}, {0.4277696261774084, 0.6849861715652007}, {0.545389561738893, 0.5458611808260452}, {0.8365115339876664, -0.2442934443601034}, {0.7548818615184157, 0.755530859009844}, {0.3631491624115377, 0.7985066246699659}, {0.2414819749420329, 0.1071111081823788}, {0.7709099004170766, 0.1549578107446878}, {0.6230462265985578, 0.4219211087120928}, {0.4309269291918184, 0.8184508593293983}, {-0.9295991173607024, 0.9308038981717894}, {0.2833574857194754, 0.613401315751452}, {0.4214548665275223, 0.4848547611907}, {0.6523632630690291, 0.06130347427855271}};

float b3 = -2.01915843940528;

float b2[5][1] = {-0.0008253128785434538,-0.00203235568657117,-0.3341686426679724,-0.003641171128916677,-1.458671809231846};

float b1[20][1] = {-0.2123569377538001,-0.3247700544352307,-0.4570962087198673,-0.3659907098776287,-0.04734470468096427,-0.0006001982572318108,-0.2055730958461054,
 -0.4278385932312038,
 -0.5456503765690597,
 -0.00100551774355523,
 -0.7547662819933701,
 -0.362517489143964,
 -0.05342520105680383,
 -0.1115594574125839,
 -0.300403470025684,
 -0.0004221050052101153,
 -0.0009140446539936066,
 -0.2825828800304573,
 -0.0005268958456681724,
 -0.0002845982599622636,
};
 

 

